function [PAR] = PAR_from_Ed_380_412_443_490_555_LOM(Ed)
%
% PAR predictor from multispectral Ed at the bands [380 412 443 490 555]
% Vectorized code, works with N samples at once, and returns N PAR
% estimates.
%
% PAR = PAR_from_Ed_380_412_443_490_555_LOM(Ed)
% Input arguments:
%   Ed · Nx5 matrix: downwelling irradiance spectrum
% Output arguments:
%   PAR    · Nx1 matrix: Estimated PAR
% where N is the number of samples.
%
% This function is self-contained.
% Jaime Pitarch, CNR-ISMAR, 27-Sep-2024.

% Example run:
% my_Ed =[0.00089262    0.0038237    0.0069923     0.018696    0.0023898
%         1.65e-06   1.0538e-05   9.9975e-05   0.00075004   5.8526e-06
%         0.058626      0.12932      0.14587      0.14568     0.035567];
%    PAR = PAR_from_Ed_380_412_443_490_555_LOM(my_Ed);

% ===== NEURAL NETWORK CONSTANTS =====

% Input 1
x1_step1.xoffset = [-22.6422533091432;-20.6614926671289;-19.5694508081377;-7.80877488738832;-21.2406406116215];
x1_step1.gain = [0.0869916582169695;0.0939673350698428;0.0986990164692655;0.23427495150328;0.0912216794081883];
x1_step1.ymin = -1;

% Layer 1
b1 = [16.176826514113130884;-1.6674055704818471213;-4.9760764106614310265;-1.857525814751573856;-3.2599315658229435222;4.2509065849770850676;-0.54854427172708430938;1.344767605125204879;0.78519443901741448055;-0.44778869266170495678];
IW1_1 = [-3.371571250542432896 -1.6559512510518710204 -1.3777084077330170597 7.762777978732715134 -15.788680199635937385;0.52026723182171263904 2.3249633034135945842 -2.5443464419994978876 1.0267663615704563096 -1.3796860276827316305;2.3881967030278601349 1.9445431828146360065 -3.8033479311260269817 -1.9964091129333612074 6.8960182838320012166;1.5673630079897542533 1.8947127670079320083 -3.8500463440631960133 -2.0002861408420873346 -5.0120449159648110538;2.8403990074907743413 3.5312295660510257811 -3.5617237012003064578 -0.44979456471745798973 -0.24757962358310336981;-2.7452401681648086473 -2.1719015872578046888 4.2199582910856747731 1.6895225084045195629 -5.1487836442379268931;-0.06414070951842736068 0.10695261058680545496 2.7241810725225579226 -0.97846312188874240423 -0.31470039550849071563;-0.40161319265463130135 -0.0010313460630338641948 -0.58938852993241275247 0.84727452561718541446 -1.977907489287209275;-0.41889928009467114478 0.097586395062295286373 0.32788441541067298024 0.92823391458178117208 -2.0700683086954296819;1.1556138055415099419 -0.25737059367500075835 3.8786240496166688452 0.61269484822065167773 5.8481941761919511436];

% Layer 2
b2 = 2.1610045462274913852;
LW2_1 = [-4.0070306694563200267 -3.2685135134561646986 0.66059976131225828233 2.5080871138008506982 1.4560990572206466975 1.0406072559534678135 -1.22797210883588237 -2.6014804243504014991 2.5917361305731545507 2.9331137223333954012];

% Output 1
y1_step1.ymin = -1;
y1_step1.gain = 0.258205088375632;
y1_step1.xoffset = -3.99387529233967;

% ===== CALCULATIONS ========
x1=log10(Ed); % conversion to logarithmic form

% Dimensions
Q = size(x1,1); % samples

% Input 1
x1 = x1';
xp1 = mapminmax_apply(x1,x1_step1);

% Layer 1
a1 = tansig_apply(repmat(b1,1,Q) + IW1_1*xp1);

% Layer 2
a2 = repmat(b2,1,Q) + LW2_1*a1;

% Output 1
y1 = mapminmax_reverse(a2,y1_step1);
PAR = 10.^y1';
end

% ===== MODULE FUNCTIONS ========

% Map Minimum and Maximum Input Processing Function
function y = mapminmax_apply(x,settings)
y = bsxfun(@minus,x,settings.xoffset);
y = bsxfun(@times,y,settings.gain);
y = bsxfun(@plus,y,settings.ymin);
end

% Sigmoid Symmetric Transfer Function
function a = tansig_apply(n,~)
a = 2 ./ (1 + exp(-2*n)) - 1;
end

% Map Minimum and Maximum Output Reverse-Processing Function
function x = mapminmax_reverse(y,settings)
x = bsxfun(@minus,y,settings.ymin);
x = bsxfun(@rdivide,x,settings.gain);
x = bsxfun(@plus,x,settings.xoffset);
end
